1572422612.944820 -0.138689 -0.040828 0.353409 
1572422613.064800 -0.138826 -0.050354 0.357425 
1572422613.184780 -0.137136 -0.062793 0.317552 
1572422613.304690 -0.136112 -0.044723 0.293589 
1572422613.424670 -0.135288 -0.050614 0.280546 
1572422613.544650 -0.135392 -0.017640 0.269979 
1572422613.664630 -0.137294 0.053630 0.288893 
1572422613.784610 -0.138161 0.106479 0.288705 
1572422613.904590 -0.138910 0.104975 0.295691 
1572422614.024570 -0.138662 0.110777 0.296894 
1572422614.144550 -0.138915 0.137681 0.283313 
1572422614.264530 -0.139588 0.166973 0.262164 
1572422614.384510 -0.139622 0.169321 0.259572 
1572422614.504420 -0.139738 0.165718 0.254006 
1572422614.624400 -0.140278 0.172108 0.249371 
1572422614.744380 -0.142637 0.176938 0.230579 
1572422614.864360 -0.142981 0.182412 0.232220 
1572422614.984340 -0.142550 0.185005 0.225587 
1572422615.104320 -0.141735 0.178950 0.221901 
1572422615.224300 -0.141905 0.182765 0.218361 
1572422615.344280 -0.141301 0.179082 0.214374 
1572422615.464260 -0.141338 0.188643 0.211317 
1572422615.584240 -0.140887 0.190995 0.204496 
1572422615.704220 -0.141452 0.197771 0.196934 
1572422615.824130 -0.141217 0.195778 0.197106 
1572422615.944110 -0.140860 0.190314 0.203526 
1572422616.064090 -0.140206 0.195310 0.211234 
1572422616.184070 -0.139070 0.207770 0.216065 
1572422616.304050 -0.139183 0.207172 0.226581 
1572422616.424030 -0.139067 0.210631 0.224874 
1572422616.544010 -0.138555 0.210345 0.231591 
1572422616.623950 -0.137680 0.206530 0.228735 
1572422616.743930 -0.137642 0.205930 0.229182 
1572422616.863910 -0.138464 0.207723 0.228573 
1572422616.983890 -0.138305 0.191543 0.210426 
1572422617.103870 -0.137469 0.178654 0.193434 
1572422617.223850 -0.137301 0.178232 0.200919 
1572422617.343830 -0.137452 0.186770 0.212512 
1572422617.463810 -0.135829 0.186872 0.219305 
1572422617.583790 -0.134373 0.191907 0.239063 
1572422617.703770 -0.134442 0.188271 0.243642 
1572422617.823750 -0.134320 0.190446 0.266695 
1572422617.943660 -0.134324 0.190253 0.267827 
1572422618.063640 -0.138372 0.200331 0.239487 
1572422618.143650 -0.138934 0.196605 0.230330 
1572422618.263630 -0.139928 0.206587 0.238463 
1572422618.383610 -0.139694 0.204804 0.235935 
1572422618.503590 -0.139786 0.206401 0.233960 
1572422618.623570 -0.139675 0.210768 0.230286 
1572422618.743480 -0.139593 0.213502 0.231996 
1572422618.863460 -0.139479 0.211049 0.230695 
1572422618.983440 -0.139438 0.206744 0.231760 
1572422619.103420 -0.138856 0.194165 0.224933 
1572422619.223400 -0.138162 0.187272 0.223072 
1572422619.343380 -0.138065 0.188113 0.221359 
1572422619.463360 -0.138119 0.183306 0.221786 
1572422619.543300 -0.137962 0.182162 0.221977 
1572422619.663280 -0.138021 0.180798 0.222183 
1572422619.783260 -0.137871 0.180647 0.222523 
1572422619.903240 -0.137745 0.179595 0.218800 
1572422620.023220 -0.137582 0.178157 0.218427 
1572422620.103230 -0.137327 0.176341 0.220527 
1572422620.223210 -0.138041 0.175043 0.219903 
1572422620.343190 -0.138143 0.172606 0.218668 
1572422620.463100 -0.138269 0.168308 0.215721 
1572422620.583080 -0.138438 0.165870 0.216443 
1572422620.703060 -0.138164 0.162940 0.214873 
1572422620.783070 -0.137830 0.163833 0.210091 
1572422620.903050 -0.137663 0.163805 0.209197 
1572422621.023030 -0.137812 0.165840 0.210567 
1572422621.143010 -0.137880 0.165653 0.209925 
1572422621.222950 -0.137390 0.165803 0.210164 
1572422621.302960 -0.137487 0.166719 0.210242 
1572422621.422940 -0.137990 0.167337 0.210321 
1572422621.542920 -0.137986 0.168668 0.210753 
1572422621.662830 -0.137789 0.167898 0.210370 
1572422621.782880 -0.137762 0.166430 0.208432 
1572422621.902790 -0.137016 0.165211 0.205909 
1572422622.022770 -0.136944 0.164952 0.205406 
1572422622.102780 -0.136966 0.165099 0.204514 
1572422622.222760 -0.137215 0.166078 0.204692 
1572422622.342740 -0.137460 0.162931 0.203645 
1572422622.462720 -0.137384 0.163395 0.204651 
1572422622.582630 -0.137359 0.162243 0.203612 
1572422622.702610 -0.137776 0.138214 0.184957 
1572422622.822590 -0.137858 0.137673 0.188791 
1572422622.942570 -0.137954 0.146338 0.202823 
1572422623.062550 -0.138145 0.146263 0.200390 
1572422623.182530 -0.138424 0.151948 0.202238 
1572422623.302510 -0.138569 0.153104 0.204060 
1572422623.422490 -0.138522 0.154188 0.205702 
1572422623.542470 -0.139082 0.157641 0.203169 
1572422623.662450 -0.138939 0.159366 0.206804 
1572422623.782360 -0.139173 0.163668 0.207741 
1572422623.902340 -0.138831 0.163289 0.210233 
1572422624.022320 -0.139160 0.167063 0.212287 
1572422624.142300 -0.139247 0.169545 0.213734 
1572422624.262280 -0.139453 0.172269 0.212567 
1572422624.382260 -0.139510 0.171917 0.211700 
1572422624.502240 -0.139510 0.171033 0.208817 
1572422624.622220 -0.139972 0.179006 0.204509 
1572422624.742200 -0.140450 0.185600 0.207624 
1572422624.822140 -0.140941 0.181629 0.203724 
1572422624.942120 -0.140817 0.182294 0.202834 
1572422625.062100 -0.140582 0.182846 0.201321 
1572422625.182080 -0.140651 0.184618 0.201777 
1572422625.262090 -0.142645 0.166451 0.164735 
1572422625.342030 -0.142156 0.169240 0.169027 
1572422625.422040 -0.141917 0.172168 0.170674 
1572422625.542020 -0.142245 0.175603 0.174282 
1572422625.662000 -0.142320 0.177526 0.176362 
1572422625.781980 -0.142259 0.200271 0.190303 
1572422625.901890 -0.142437 0.204961 0.192501 
1572422626.021870 -0.142689 0.211407 0.194811 
1572422626.141850 -0.142743 0.215194 0.197891 
1572422626.261830 -0.142782 0.218270 0.200142 
1572422626.381810 -0.142835 0.217274 0.198863 
1572422626.501790 -0.142943 0.219776 0.199569 
1572422626.621770 -0.142703 0.220417 0.202477 
1572422626.741750 -0.142919 0.220809 0.200604 
1572422626.821690 -0.142896 0.222344 0.199002 
1572422626.901700 -0.142987 0.222195 0.199354 
1572422627.021680 -0.142950 0.224064 0.199368 
1572422627.141660 -0.143072 0.223913 0.199935 
1572422627.261640 -0.142828 0.226954 0.200911 
1572422627.381620 -0.142458 0.229169 0.189788 
1572422627.461560 -0.143016 0.229754 0.189626 
1572422627.581540 -0.142839 0.227801 0.189470 
1572422627.701520 -0.142774 0.232827 0.191037 
1572422627.821500 -0.142518 0.232823 0.192571 
1572422627.941480 -0.142689 0.233106 0.192586 
1572422628.061460 -0.143333 0.231294 0.189609 
